date,rho_t,h11_gold,h22_sp500,h12_cov,hedge_ratio,w_gold,w_sp500
1991-03-01,-0.11478653655485796,11.48869107512993,16.873578539695085,-1.5981952170944014,-0.09471584307588624,0.5853155275953078,0.4146844724046922
1991-04-01,-0.10158945109275451,9.926199003295425,13.846759050530439,-1.1910066055873678,-0.0860133841602265,0.574948659042905,0.42505134095709496
1991-05-01,-0.09342856247468202,9.198255368196547,11.352678300483369,-0.9547321858680634,-0.08409752840679131,0.5479604797833519,0.45203952021664806
1991-06-01,-0.09241342985414906,8.28963564458855,11.251656930845495,-0.8925058083559438,-0.0793221668454192,0.5694452554828464,0.4305547445171536
1991-07-01,-0.10048987018999551,8.278628989528304,16.38957926439563,-1.170537678178147,-0.071419629466694,0.6501511552824034,0.3498488447175966
1991-08-01,-0.09421802136163977,7.516652065412322,15.808144266206405,-1.0270383220558639,-0.06496893656590659,0.6633542239784082,0.33664577602159185
1991-09-01,-0.09350352523132162,8.802912602371046,12.927578214466969,-0.9974698257979991,-0.0771582897624052,0.5869249899929881,0.41307501000701186
1991-10-01,-0.08441489240971657,8.86113252300851,12.182476727197608,-0.8770643979023381,-0.0719939317383858,0.5728437224229417,0.4271562775770583
1991-11-01,-0.08538669168682396,8.777116551701862,10.011946720810979,-0.8004337361893651,-0.07994786214009428,0.53028039144808,0.46971960855191996
1991-12-01,-0.0857095266188965,7.8808411644039875,14.480042032779128,-0.9155884279040707,-0.06323106147284736,0.6363918751425051,0.36360812485749494
1992-01-01,-0.08451708985942112,7.219642051017797,32.1085234876162,-1.286804393892442,-0.04007672275521308,0.796990781854625,0.20300921814537498
1992-02-01,-0.08199187276071725,7.609397694943351,26.429270365475688,-1.1627558528903839,-0.043995003903296595,0.7587693822813135,0.24123061771868648
1992-03-01,-0.08516152505565722,7.067248853422038,20.500378337166456,-1.0250606453084987,-0.050002035496588874,0.7267749942617797,0.2732250057382203
1992-04-01,-0.07905801489225915,8.076665937698447,18.11210463696694,-0.9561949035137318,-0.05279314153045091,0.6785591513474709,0.3214408486525291
1992-05-01,-0.08634737883338163,8.004270980126458,15.152071992702734,-0.9509245565592385,-0.06275871425486927,0.6426240366435829,0.3573759633564171
1992-06-01,-0.08672682467642012,7.410857032034189,12.294368235226907,-0.8278292583501381,-0.06733402176601225,0.6143096711864389,0.38569032881356113
1992-07-01,-0.08871326990135837,6.931185758935193,11.506075040391636,-0.7922385250262177,-0.06885393344342834,0.6142480566840075,0.3857519433159925
1992-08-01,-0.07871775816596592,7.843318370701188,11.460026817552524,-0.7463034617215591,-0.06512231372604628,0.5869570296042635,0.41304297039573645
1992-09-01,-0.07324859919321565,8.682199576025276,11.743078148764456,-0.7396140992581779,-0.06298298366821277,0.5698686969579726,0.4301313030420274
1992-10-01,-0.08089529037563542,7.821259300951003,9.663630626062613,-0.7032856259922815,-0.07277654260661978,0.5487620123095558,0.4512379876904442
1992-11-01,-0.08413654044468862,7.252300401030026,8.2118942849646,-0.6492982285054919,-0.07906802084560577,0.5286227357886927,0.4713772642113073
1992-12-01,-0.09314196044575274,8.22633535366868,8.049475187725712,-0.7579356985062821,-0.09415964157042495,0.49502969515318335,0.5049703048468166
1993-01-01,-0.09061454183898807,7.508138704966319,6.943903255074462,-0.6542833569227723,-0.09422414640420508,0.48209982045849736,0.5179001795415026
1993-02-01,-0.08872103208908468,7.6317405462985715,6.125608433551359,-0.6066147973684539,-0.09902931340597709,0.44969693037435665,0.5503030696256433
1993-03-01,-0.08848309798142794,7.05168157804408,5.527621566796533,-0.5524281716389258,-0.09993957888819059,0.4443129842000585,0.5556870157999415
1993-04-01,-0.08848230583056992,6.613032395547454,5.3003210678350365,-0.5238510825955277,-0.09883383966577318,0.4493593976705703,0.5506406023294297
1993-05-01,-0.10263147022153804,7.749670501273341,7.407538067563012,-0.7776051266307432,-0.10497484043123732,0.48976412578716766,0.5102358742128323
1993-06-01,-0.08222377431190307,13.548303178617479,6.893223275728655,-0.794604526052353,-0.11527329005143222,0.3489591983676591,0.6510408016323409
1993-07-01,-0.0857549177626089,11.506944843828972,6.20810300155847,-0.7248005386701317,-0.1167507269915108,0.36175478967458385,0.6382452103254161
1993-08-01,-0.09289562629563113,13.385882320036984,5.981380400234538,-0.8312266908006156,-0.13896903978352926,0.3239514531738482,0.6760485468261518
1993-09-01,-0.09910945956574761,13.479493102808338,6.81220624228649,-0.9497204341325245,-0.13941451570229538,0.3497759286720225,0.6502240713279774
1993-10-01,-0.08063044862671352,18.171906404759536,6.7508354601599,-0.8930547470921143,-0.13228803343859924,0.28619314640225474,0.7138068535977453
1993-11-01,-0.08257223098615454,15.426262160711804,6.2336693794518965,-0.8097225886720452,-0.1298950167843584,0.30255930189173824,0.6974406981082617
1993-12-01,-0.08918777787022153,13.488082603462916,6.576496612459497,-0.8399970336398331,-0.1277271293728666,0.3410733128448491,0.6589266871551509
1994-01-01,-0.0881738283680849,11.987436093954775,5.857091069393776,-0.7388288378496125,-0.12614262423037298,0.3413651179815773,0.6586348820184227
1994-02-01,-0.08651825068546667,10.286930357473347,6.522909210568683,-0.7087144645134092,-0.10865005806996689,0.39674752562321774,0.6032524743767822
1994-03-01,-0.07934513841723431,9.422666941070283,9.056102711453763,-0.7329560131620929,-0.08093503756699691,0.4908104768098337,0.5091895231901663
1994-04-01,-0.0835013983712374,8.360751578225164,14.224650175859953,-0.9106200442632295,-0.0640170431613569,0.6201291565519064,0.37987084344809363
1994-05-01,-0.08619290808153238,8.293717425011407,11.514328917313925,-0.8422974125701089,-0.07315210626852589,0.5749235858731432,0.4250764141268568
1994-06-01,-0.08691473576285921,7.590809026249185,9.527889486884364,-0.7391554823323943,-0.07757809149128779,0.5520804289245462,0.44791957107545377
1994-07-01,-0.08947349260002475,7.072465408356872,10.737545841256383,-0.7797085953843069,-0.07261515870679389,0.5946099272929102,0.4053900727070898
1994-08-01,-0.08961542488864563,6.654045986325299,10.02589203982253,-0.7319597145263008,-0.07300694158873641,0.5929197680764071,0.4070802319235929
1994-09-01,-0.09370160978959687,6.7662598402566,10.151654379554842,-0.7765864340077093,-0.07649850999377338,0.5916403707914232,0.4083596292085768
1994-10-01,-0.09920468099208761,7.298504683395194,11.211349431810422,-0.8973834479396003,-0.0800424117897367,0.5963535528754539,0.4036464471245461
1994-11-01,-0.09442213430280406,6.90390919361494,9.59476434842306,-0.7684905024632992,-0.0800947761254401,0.5745982117754909,0.42540178822450914
1994-12-01,-0.08066161342365732,6.976722892972864,13.166421916266595,-0.7730837158877053,-0.058716310384417415,0.6426900713704722,0.3573099286295278
1995-01-01,-0.08495101898914088,7.002231452396456,10.745082574170036,-0.7368714025714406,-0.06857754675080824,0.5973633019907344,0.4026366980092656
1995-02-01,-0.08744859704771744,6.626748221681184,9.453140202124143,-0.6921355096442,-0.07321752294424615,0.5809197828745393,0.41908021712546073
1995-03-01,-0.09021411657100274,6.419559606897126,9.553027243029252,-0.7064763477508688,-0.0739531385997436,0.5901170661958586,0.4098829338041414
1995-04-01,-0.08679291777077695,6.294373223022107,8.793019851512978,-0.6456981776941603,-0.0734330399109764,0.5762769018791445,0.4237230981208555
1995-05-01,-0.08284896484440213,6.5667426805428,8.282346994985051,-0.6109966043878278,-0.07377094979934858,0.5533755045255185,0.44662449547448146
1995-06-01,-0.09121105676291417,6.786158068235871,8.716116307707553,-0.7014891877866866,-0.08048185258454714,0.5570816144496425,0.44291838555035745
1995-07-01,-0.08926505886185883,6.417029981884876,7.777327774641498,-0.6306141787680027,-0.0810836571430309,0.5440066712034605,0.45599332879653953
1995-08-01,-0.0905387243612889,6.2249008699809165,7.869200081445666,-0.6336739954484051,-0.08052584619655415,0.5535203162682926,0.44647968373170743
1995-09-01,-0.08799305726099818,6.169793526853458,6.965679654181263,-0.5768534194641001,-0.08281365898270018,0.5278492581875202,0.47215074181247985
1995-10-01,-0.08989838246163051,6.006331313950168,8.202069518437057,-0.6309838487712396,-0.07692983427571295,0.570965930780476,0.42903406921952403
1995-11-01,-0.0882145588825473,5.860041176017852,7.432130791660398,-0.5821665825457589,-0.07833104648790744,0.5543730867593635,0.4456269132406365
1995-12-01,-0.08703582400743214,5.731849896448368,8.6698488951566,-0.6135517707714326,-0.07076845031453692,0.593993094802821,0.40600690519717897
1996-01-01,-0.08740922579785833,5.636739318776327,7.567800059813538,-0.5708947821394561,-0.0754373500392824,0.5673015636518322,0.43269843634816785
1996-02-01,-0.07869824010237764,6.573846364497025,7.796504859286231,-0.5634102873156374,-0.07226446946218122,0.5394477944328621,0.46055220556713794
1996-03-01,-0.08367393158195371,6.373450025311515,6.7552731181846735,-0.5490336010578197,-0.08127481916014079,0.5134191579266131,0.4865808420733869
1996-04-01,-0.08543096703552076,7.059549652273564,5.983166976003217,-0.5552254726966371,-0.09279792372893633,0.4619737888826808,0.5380262111173192
1996-05-01,-0.08757012849321547,6.8496782651322015,5.467017818577843,-0.5358784814979144,-0.09802025515207019,0.44836369662234615,0.5516363033776539
1996-06-01,-0.08901851127779621,6.5214621700859725,5.469718384133612,-0.5316616074289192,-0.09720091055714067,0.45971720547342226,0.5402827945265778
1996-07-01,-0.08634872618859488,6.880869202153785,5.113857081761028,-0.5122145132609519,-0.10016207044342423,0.43213798905309,0.56786201094691
1996-08-01,-0.07799888299194237,6.597099624658904,11.316629804820144,-0.6739434536976171,-0.05955337104078118,0.6225112705397992,0.37748872946020084
1996-09-01,-0.08251964336499804,6.32263218809819,9.576212737135405,-0.6421007749392356,-0.06705164061876422,0.5946741473856136,0.40532585261438636
1996-10-01,-0.09198453988934702,6.403958894307993,12.313415761719344,-0.8168237935152923,-0.06633608491111631,0.6451882071778278,0.35481179282217223
1996-11-01,-0.09147431974253514,6.265086465551091,10.736727333524568,-0.7502373564241226,-0.06987579484127969,0.6208402102553882,0.37915978974461184
1996-12-01,-0.09657235209779506,6.262443006515359,17.314508372905976,-1.0056104661127663,-0.05807906551284828,0.7159604295254822,0.2840395704745178
1997-01-01,-0.08455569103424537,7.160837141747236,15.718317756079513,-0.8970729753083445,-0.05707181832237586,0.6734158041296721,0.32658419587032794
1997-02-01,-0.10238482088215434,9.330505654806933,18.22795504268525,-1.3352332525373145,-0.07325195006299592,0.6471677993773265,0.3528322006226735
1997-03-01,-0.09423869053169462,9.474670456914263,14.459364724343628,-1.1030263970795586,-0.07628456838235192,0.5953457821587504,0.40465421784124955
1997-04-01,-0.09443094889660258,8.564524527907349,17.456361853816183,-1.1546300348634109,-0.06614379585692387,0.6569324278140753,0.34306757218592465
1997-05-01,-0.09899830039391991,8.65627593153334,18.9217107982746,-1.2669908682679776,-0.06695963603795857,0.6704543971978272,0.3295456028021728
1997-06-01,-0.09485648080126435,7.844807115239789,20.036543782016913,-1.1892401087218094,-0.05935355526681051,0.701450837920479,0.298549162079521
1997-07-01,-0.09418460752570564,7.447180465727773,18.296594645689428,-1.0994133461706506,-0.060088413579718565,0.6941375083136017,0.30586249168639834
1997-08-01,-0.11502036721284178,11.202427916944993,24.125603386531612,-1.8909059168680882,-0.07837755958152356,0.6652164063180593,0.33478359368194066
1997-09-01,-0.09885652067689772,9.699359324930928,28.602717024732286,-1.6465711060665607,-0.05756694738625,0.7272299359566701,0.27277006404332993
1997-10-01,-0.09482537877826909,8.651839880271167,26.161878425436395,-1.4266363466317495,-0.05453111292057204,0.732432138601721,0.26756786139827904
1997-11-01,-0.09160764033120287,7.794981950139217,24.355201757400177,-1.2622201800556863,-0.05182548650709364,0.7387945111524741,0.2612054888475259
1997-12-01,-0.1015336085465109,13.11064759079838,21.645052930019315,-1.710413908770238,-0.0790210083708357,0.6117755556972152,0.3882244443027848
1998-01-01,-0.09574383203777061,16.752303691319796,17.081465756325976,-1.6196107164049418,-0.09481684648784504,0.5044393783343187,0.49556062166568127
1998-02-01,-0.09184573327369608,13.777119782861863,13.607576256274573,-1.257559641842025,-0.09241613775724043,0.4971648064585555,0.5028351935414446
1998-03-01,-0.07957573800984921,12.43731112623401,18.714703684544283,-1.2140467256481051,-0.06487127694416756,0.5934689148307479,0.40653108516925207
1998-04-01,-0.08579418049339697,10.710681864780609,18.31678067865336,-1.2016858927177991,-0.06560573682679191,0.6209974055140888,0.3790025944859112
1998-05-01,-0.0863491024323049,11.267990755030407,14.513296266384703,-1.1042415866171735,-0.07608482362306539,0.557973064601557,0.44202693539844296
1998-06-01,-0.08027261171404622,11.45018422478567,13.314050222960685,-0.9911256729776302,-0.07444208609551352,0.5348431942153299,0.4651568057846701
1998-07-01,-0.08961854619615266,10.926059162831283,12.801960646803117,-1.0599073706771942,-0.08279258153647523,0.536287401179997,0.46371259882000304
1998-08-01,-0.08837298702652348,9.474055649790209,11.305631951645998,-0.9146078440948424,-0.08089842726232423,0.5405056423655943,0.4594943576344057
1998-09-01,-0.03592096095326585,10.137255710262316,68.55164867767326,-0.9469283067379144,-0.013813355696087316,0.8624496867660555,0.1375503132339445
1998-10-01,-0.05937945829368282,9.122643119886675,57.43158748384246,-1.3591643805200482,-0.023665798562549384,0.8486874514739298,0.15131254852607023
1998-11-01,-0.06850704243086987,8.693303110349326,53.578946139084046,-1.4785115224504228,-0.027595009401872095,0.8440605839215645,0.15593941607843553
1998-12-01,-0.08036978640243458,7.9748846245350675,45.7139191121003,-1.5345436492230258,-0.03356841152603864,0.8324562787598923,0.16754372124010775
1999-01-01,-0.08676213205387139,7.518098658954653,39.376682788162256,-1.4928074350874136,-0.037910949561657685,0.8193497494141138,0.18065025058588624
1999-02-01,-0.0903910353636068,7.541054085830405,32.23175724350151,-1.4092348690549368,-0.04372193729335261,0.7898563102454496,0.21014368975455044
1999-03-01,-0.08823457849781274,6.985175524419243,28.420177021887685,-1.2431996137658687,-0.043743556305382035,0.7828452168879093,0.2171547831120907
1999-04-01,-0.08966193452046108,6.676562052184418,23.866442639488675,-1.1318226876078261,-0.047423183450689355,0.7619877456591301,0.23801225434086992
1999-05-01,-0.09176214140659025,6.702242784636038,20.40367016253804,-1.0730692873849543,-0.05259197383788102,0.734196007887235,0.26580399211276495
1999-06-01,-0.0826655727675666,7.3595329008305805,18.48337227375434,-0.9641406860012007,-0.05216259629040976,0.7002766312174501,0.2997233687825499
1999-07-01,-0.10299838989072187,12.168726338901141,18.927405816819867,-1.5631424050256162,-0.08258619380562589,0.5987463785021154,0.40125362149788457
1999-08-01,-0.08914633457124718,11.25239168871159,18.561759594908718,-1.2883548105819596,-0.06940908829221884,0.6128307136955029,0.3871692863044971
1999-09-01,-0.08840609123363967,9.71177549345667,15.152028913925257,-1.0724249308415994,-0.07077764548455966,0.6007131522783733,0.3992868477216267
1999-10-01,-0.09473448950561937,9.607260033773025,15.170316895627554,-1.14368182228912,-0.07538944836536383,0.6027723827186794,0.3972276172813206
1999-11-01,-0.02898667429961121,43.93508579368133,18.079940041274504,-0.8169634423416801,-0.04518618095395465,0.29689260665219797,0.703107393347802
1999-12-01,-0.05966454626677711,39.47711270053363,14.576761895657704,-1.4312633908397,-0.09818802015734793,0.2812550494930161,0.7187449505069838
2000-01-01,-0.07999756550608457,32.780105702481414,16.687307582234432,-1.8710055726698467,-0.1121214769638302,0.34877868636409354,0.6512213136359064
2000-02-01,-0.0833918209807274,25.58855014204867,21.203560132502957,-1.9424537639928463,-0.09160979344290665,0.4567359110728279,0.543264088927172
2000-03-01,-0.0905082562531482,23.783837804403017,18.407228938950663,-1.8937531662863523,-0.1028809481626575,0.441531364440413,0.5584686355595869
2000-04-01,-0.10458708805417237,22.620025467308906,29.75083011980344,-2.7131522194785087,-0.09119584927724478,0.5616881923720662,0.43831180762793376
2000-05-01,-0.0921149724589662,19.225999018714255,26.32318210485834,-2.072258256252895,-0.07872369867738857,0.5714092875329871,0.42859071246701286
2000-06-01,-0.08742452186098498,16.197414354253556,22.419023543199515,-1.6659595730397536,-0.07431008624570977,0.5741579602568151,0.4258420397431849
2000-07-01,-0.0851373159009748,14.978884499807867,18.04321562574902,-1.3996410125621286,-0.07757159486387426,0.5427723742351869,0.45722762576481313
2000-08-01,-0.08398259356986928,12.971296016738536,15.634521208511746,-1.1959781922255432,-0.0764959909085306,0.5429583302547203,0.4570416697452797
2000-09-01,-0.09443653729051593,12.270796640049806,18.038655850959977,-1.4050071044573476,-0.07788868062376035,0.5870765713586101,0.41292342864138987
2000-10-01,-0.08768831575232701,10.531462198256238,22.925648061500073,-1.3625325176163958,-0.05943267182507915,0.6712747473333965,0.32872525266660346
2000-11-01,-0.08643722132318668,9.633974754514435,18.29274484162499,-1.1474743531795193,-0.06272838565858366,0.6432543365978695,0.35674566340213054
2000-12-01,-0.0741795628646785,9.044385943067748,32.61668241222045,-1.2740712194719668,-0.0390619500588635,0.7665993810528292,0.2334006189471708
2001-01-01,-0.08156861927442328,8.452872464803015,25.101596610216742,-1.1881627761105222,-0.047334151470943546,0.7316776503015544,0.2683223496984456
2001-02-01,-0.08858637830701342,8.65803989073022,20.939955492971592,-1.1927917181996799,-0.056962476286066384,0.6920034601400263,0.30799653985997366
2001-03-01,-0.07431195701118067,8.261853260511238,40.23557629603767,-1.3548853605721018,-0.03367381519785834,0.8121994842730627,0.18780051572693734
2001-04-01,-0.08097983522514907,7.500772003123116,42.682695046411574,-1.4489579693904207,-0.03394719962773854,0.8313960664046077,0.16860393359539227
2001-05-01,-0.08861535423037828,7.222821340358276,41.76410508805342,-1.5390899562060842,-0.03685197977931387,0.831712409474247,0.16828759052575304
2001-06-01,-0.08813157238784282,9.112149440847073,31.833359379544397,-1.5010085688503443,-0.04715206305919658,0.7585038570813293,0.24149614291867072
2001-07-01,-0.08585036247114292,8.339909323072211,26.92527297390312,-1.286479455139366,-0.04777962534999237,0.7455903363359172,0.2544096636640828
2001-08-01,-0.08528672731821847,7.854194151402951,21.65058501055586,-1.1121595202745314,-0.0513685667030379,0.7174091234975981,0.2825908765024019
2001-09-01,-0.09253345664699221,7.477392882229687,28.938561201349906,-1.3611699514247875,-0.04703654552671031,0.7741709734021834,0.22582902659781656
2001-10-01,-0.10772936782084848,8.75762761236718,41.188526798637504,-2.046046397636209,-0.04967515365720463,0.8000735669911138,0.19992643300888624
2001-11-01,-0.09788039929769503,7.910185641350754,31.584180032592133,-1.5471195482438518,-0.048984002327980614,0.7779381306203098,0.2220618693796902
2001-12-01,-0.10201214202699024,8.45736380613237,33.15098983235468,-1.7081170329785373,-0.05152537048264696,0.7742237884366561,0.22577621156334393
2002-01-01,-0.09480710110761671,7.686343997989403,25.457535631637636,-1.3261997942621881,-0.052094586587322245,0.7482267992903142,0.2517732007096858
2002-02-01,-0.09352691427023728,7.454131143327369,21.0225113838048,-1.1707857252504248,-0.05569200101146658,0.7201357328871325,0.2798642671128675
2002-03-01,-0.09848036670543933,9.76445362670716,18.357427813008673,-1.3184982121573774,-0.07182369042045457,0.6396828295278959,0.3603171704721041
2002-04-01,-0.09456540087205344,8.72969325786173,16.19783591865497,-1.1245020654956885,-0.06942298163426912,0.6374005760096342,0.3625994239903658
2002-05-01,-0.10251864894389723,8.734030380029761,24.01232838618597,-1.4846612047581946,-0.061829122977191335,0.7138878148646008,0.28611218513539916
2002-06-01,-0.09804525216627359,9.540832611325358,19.3697081986944,-1.332849904389617,-0.06881104716277846,0.6556372037131836,0.34436279628681643
2002-07-01,-0.10026325247469955,8.857711282727513,30.302990976382134,-1.6426509801618139,-0.05420755269478451,0.7526183569929088,0.2473816430070912
2002-08-01,-0.07882166683827876,9.172765458400978,41.02355596965384,-1.529017339807485,-0.037271691925939765,0.7990439922591202,0.20095600774087985
2002-09-01,-0.08328827297391403,8.455346531274724,31.290022865491796,-1.3547292343477393,-0.04329588508680198,0.7689290886607695,0.23107091133923052
2002-10-01,-0.0994440738829692,8.483862073814349,57.63421289933217,-2.198952714086648,-0.03815360015287253,0.8485050519456289,0.15149494805437114
2002-11-01,-0.09675883855402147,7.885850576635032,55.48152842834989,-2.0239003562560463,-0.036478814005092834,0.8530041605700995,0.14699583942990047
2002-12-01,-0.09141630727025547,7.243174986911901,46.71512488687268,-1.6815776246839114,-0.03599642789687688,0.8443034533505577,0.15569654664944232
2003-01-01,-0.10029820309533585,8.563016709657001,46.17290086370317,-1.994344263897483,-0.04319296008246366,0.8202225323509352,0.17977746764906477
2003-02-01,-0.10225734176998853,14.510711416069885,37.87121798791193,-2.397140490994819,-0.063297158590462,0.7042851949626037,0.29571480503739633
2003-03-01,-0.09510198495522394,12.114815361276127,30.33551191209642,-1.8231552205590902,-0.06009970182280323,0.6976358521382192,0.3023641478617808
2003-04-01,-0.09043628443144651,15.059317730457366,23.37907155576698,-1.6969107047749117,-0.07258246764535566,0.5994419573688711,0.40055804263112893
2003-05-01,-0.10112205659885835,14.990216512900385,28.663364433311777,-2.096106907633376,-0.07312843237611485,0.6428876663934087,0.35711233360659134
2003-06-01,-0.0796849806827973,20.94133229548116,25.815861736937936,-1.8527718301451352,-0.07176873849979395,0.548298305485723,0.451701694514277
2003-07-01,-0.08401915161080614,16.8625819728284,20.063072132093055,-1.5453933750314839,-0.07702675666302669,0.5399896903733007,0.4600103096266993
2003-08-01,-0.0867420145987443,14.387313885451125,15.930017629277726,-1.3131897736012328,-0.08243492280810322,0.5234142374082636,0.47658576259173635
2003-09-01,-0.08621180211272253,12.627084136439743,12.940634710610764,-1.1020366795184602,-0.08516094489668559,0.5056451267502696,0.4943548732497304
2003-10-01,-0.09297909535280156,14.041889187276144,11.436849752124594,-1.1782875665170887,-0.1030255351827282,0.4532062144444905,0.5467937855555095
2003-11-01,-0.09108984610171543,11.791569478082046,13.824675634728813,-1.1630094688720158,-0.08412562432571169,0.5363804835744224,0.46361951642557764
2003-12-01,-0.08955484543325955,10.971298966882177,11.20145499729291,-0.9927852878736755,-0.08863002959112053,0.504763493222189,0.49523650677781095
2004-01-01,-0.07533171119302359,11.668387461965814,12.910839057200517,-0.9246140476504742,-0.07161533371719994,0.5235059448870417,0.4764940551129583
2004-02-01,-0.08107417568398506,10.23969633633998,10.690308550796399,-0.8482447896137711,-0.07934708204007632,0.509957623243987,0.49004237675601303
2004-03-01,-0.08528557275078061,9.943184688706896,8.916855432912003,-0.8030529582991248,-0.09006010743821934,0.4749261718870179,0.5250738281129821
2004-04-01,-0.08653767792696063,8.741134009536546,8.903456761783405,-0.7634286492881465,-0.08574519646852624,0.5042334504846753,0.49576654951532473
2004-05-01,-0.08385852126420694,8.08668261354361,8.940887334681129,-0.7130544756779151,-0.07975209271590109,0.52314456444663,0.47685543555336996
2004-06-01,-0.08672148172088992,11.577466858314088,7.624224685096083,-0.8147630139590262,-0.10686503187028758,0.4051125513983593,0.5948874486016407
2004-07-01,-0.08570933787732572,10.41525009600353,6.8176469447588275,-0.7222378510660905,-0.10593652867597113,0.40369086699805395,0.5963091330019461
2004-08-01,-0.09044273766305805,9.242939348657915,10.047853505457416,-0.8715963415892906,-0.08674453116935767,0.5191336576554254,0.4808663423445746
2004-09-01,-0.08932467017195045,8.229489378885928,8.490582227184262,-0.7466663886821563,-0.08794054031907936,0.5071676014764106,0.4928323985235894
2004-10-01,-0.08858781650985627,7.561743775597767,7.265042314699445,-0.656604795506083,-0.09037866086169474,0.4908085024693683,0.5091914975306318
2004-11-01,-0.08564221871374803,8.529840677094365,6.425814937944009,-0.6340484957220237,-0.09867207534689641,0.43515600890296907,0.5648439910970309
2004-12-01,-0.07202278811841452,10.006863240102827,7.615631699348227,-0.6287411401728678,-0.08255928923488746,0.43667281710893036,0.5633271828910696
2005-01-01,-0.07960475263962966,8.79348158251899,7.816087069801164,-0.6599546917377762,-0.08443543244133346,0.47274336400740485,0.5272566359925952
2005-02-01,-0.0664655759532528,10.962744913064714,9.24457847140182,-0.6691137946222426,-0.07237904861667319,0.4601271175715272,0.5398728824284729
2005-03-01,-0.07806431965822737,9.542455910280891,8.051461286659858,-0.684258206415792,-0.08498559231098979,0.46068556773080427,0.5393144322691957
2005-04-01,-0.08831356671095546,9.045652529835886,8.5819548624727,-0.7781090894228613,-0.09066804730299717,0.48791435874864225,0.5120856412513577
2005-05-01,-0.08353907708939058,8.403071111604449,9.095692228285113,-0.7303424949085958,-0.08029542739335777,0.5182658562800961,0.48173414371990386
2005-06-01,-0.0900403399609119,8.278778066061795,8.673910663586398,-0.7630055881546379,-0.0879655806645302,0.510691569199552,0.48930843080044795
2005-07-01,-0.09031334913980883,7.905925357434322,7.55281185004489,-0.6978830262067863,-0.09240042517445188,0.48952465397690764,0.5104753460230924
2005-08-01,-0.0943008715099169,7.745671972049166,8.139167958929608,-0.7487472875462504,-0.09199309945739455,0.5113188474983899,0.48868115250161015
2005-09-01,-0.09632794224000592,8.181456470965013,7.831740178076529,-0.771075191795396,-0.09845515482674908,0.490039607527028,0.509960392472972
2005-10-01,-0.09198068124521519,9.365844499367535,6.781175170668613,-0.7330313940304871,-0.10809798826627441,0.4266264342187675,0.5733735657812324
2005-11-01,-0.09664238842743401,9.278637206442456,7.482262269592084,-0.8052416225020619,-0.10762007444921626,0.4511094248014008,0.5488905751985992
2005-12-01,-0.08906425125734653,8.399433079459685,8.000618321288622,-0.7301131735983737,-0.09125709342434646,0.4888351468045633,0.5111648531954367
2006-01-01,-0.0928567668561977,13.492234359464662,7.087045318401993,-0.9080047096537702,-0.1281217586257103,0.35699695562601896,0.643003044373981
2006-02-01,-0.07845865395077263,18.676936457299565,6.835431287088224,-0.8864957025345162,-0.12969126091707786,0.2830062432869411,0.7169937567130589
2006-03-01,-0.08366450631629233,15.222074100253495,6.175507246897866,-0.8111748673595284,-0.13135356091874148,0.30350577894474356,0.6964942210552565
2006-04-01,-0.08596225269854389,12.63574386709457,5.570677437977862,-0.7212107656928621,-0.12946554054198825,0.3202167301168602,0.6797832698831399
2006-05-01,-0.08148150676834273,21.90971297792753,5.138988450029107,-0.8646019612873985,-0.16824360858069287,0.20861804701173772,0.7913819529882623
2006-06-01,-0.11259332176235438,31.159984692067034,8.187114237083756,-1.798360168769799,-0.21965739290946715,0.2325241344707047,0.7674758655292953
2006-07-01,-0.09228412014787145,48.65456849823588,7.185427177575763,-1.7255004811387444,-0.2401388864566989,0.15029141292912654,0.8497085870708735
2006-08-01,-0.09073778883617376,42.01855321444022,6.3229720452917855,-1.4790040732449246,-0.23390963342091972,0.15208668774344933,0.8479133122565506
2006-09-01,-0.08968539945722713,32.455911100378785,6.0115506371911165,-1.2527427678395378,-0.20838928979310387,0.17729487109103997,0.82270512890896
2006-10-01,-0.09421975922612756,30.61839647953239,5.980111037906125,-1.2749343882271178,-0.213195771808532,0.18532174544529065,0.8146782545547093
2006-11-01,-0.094308378304407,24.91718685817939,6.5178020729588635,-1.2018502703254004,-0.1843950241004788,0.22813094903453796,0.771869050965462
2006-12-01,-0.08684495002688232,25.96740348192873,5.945084041455437,-1.0790407143555123,-0.18150133906119661,0.20616399936517632,0.7938360006348237
2007-01-01,-0.0875173033928573,20.564285714379768,5.422976806704789,-0.9242077706576816,-0.1704244372786219,0.22802335057668913,0.7719766494233109
2007-02-01,-0.08789448537983717,16.58249140805938,5.067894520220406,-0.8057499769635192,-0.15899107089712605,0.25250078720731395,0.747499212792686
2007-03-01,-0.10045766597463068,16.94550999523927,6.7286919341230185,-1.072693695316851,-0.15942083629612033,0.30214987282536226,0.6978501271746378
2007-04-01,-0.09424393477583518,14.440984017044734,5.968591944852511,-0.8749590910304038,-0.1465938866511044,0.3088315550627702,0.6911684449372297
2007-05-01,-0.07972734522542338,13.59696370020605,7.895172659052798,-0.8260552356916946,-0.1046278873641249,0.37682055322698454,0.6231794467730154
2007-06-01,-0.0880493264453545,12.149396970115689,8.031286908428944,-0.8697530687213287,-0.10829560425845466,0.4060658219959946,0.5939341780040054
2007-07-01,-0.08255725913520846,11.062539076373499,8.41322567221816,-0.7964599537181718,-0.09466760844751997,0.437126748835805,0.562873251164195
2007-08-01,-0.08852112815117597,9.727823564303588,10.79325113485203,-0.9070493653632934,-0.08403856762253764,0.5238508909253198,0.4761491090746802
2007-09-01,-0.08845033573902382,8.60743521515368,9.00426653187237,-0.7786827213798834,-0.08647930607380212,0.5103508249199038,0.4896491750800962
2007-10-01,-0.0693886311130268,13.796842849553848,9.190499732578862,-0.7813538241562848,-0.08501755583393464,0.4061846498533328,0.5938153501466672
2007-11-01,-0.0757029500268155,15.676771465949484,7.866813297032748,-0.8406990155351605,-0.10686652699032026,0.34519398422031555,0.6548060157796844
2007-12-01,-0.10518975138506573,18.57305998423543,12.930976765572298,-1.6301622242742018,-0.126066441370027,0.41885248248240603,0.581147517517594
2008-01-01,-0.09560649768993981,15.200715221145353,11.160559083371849,-1.2452667612196198,-0.11157745341583707,0.42998435033941335,0.5700156496605866
2008-02-01,-0.13222214512823094,26.605166105949674,20.21268847142585,-3.066191160857474,-0.15169635475221757,0.4396369307402133,0.5603630692597867
2008-03-01,-0.11439590862332094,22.516034771270807,20.0212188204261,-2.42885564288211,-0.12131407506540695,0.473680580233628,0.526319419766372
2008-04-01,-0.10310162960447762,20.915521975529487,16.21031570763984,-1.898434510288094,-0.11711274132639943,0.4425110574680169,0.5574889425319831
2008-05-01,-0.10599876755286637,23.331133245673698,16.082856170169926,-2.0532901404999944,-0.12766949593868687,0.41672584796116013,0.5832741520388398
2008-06-01,-0.09694309838843562,19.729177410903826,12.875363603148793,-1.5450805885478953,-0.1200028703010788,0.40399396287084527,0.5960060371291547
2008-07-01,-0.08781995067175416,15.976112345571112,31.246728067749245,-1.9621446280053754,-0.06279520286895472,0.6492812580188123,0.3507187419811877
2008-08-01,-0.09084405354486456,16.950144119421477,24.767197112758144,-1.8613225224886092,-0.07515273181759433,0.5860151337376877,0.41398486626231235
2008-09-01,-0.0881981668330529,34.06595956543985,19.301793154812007,-2.261615127987975,-0.11717124465320188,0.3724830219527404,0.6275169780472596
2008-10-01,-0.08097551301014584,26.869952313757572,38.28626701532369,-2.5972195776070026,-0.06783684542991596,0.5811386485040124,0.4188613514959876
2008-11-01,-0.0648763348098766,22.786488747380325,110.16943982848869,-3.2505404977472687,-0.029504919901632395,0.8132970918768783,0.18670290812312174
2008-12-01,-0.06671621497045982,23.929449627267665,98.23362122104861,-3.234653991575014,-0.032928176233026026,0.7888237482225763,0.21117625177742372
2009-01-01,-0.07706080400350124,25.382842970014547,73.47159353738037,-3.327847352386308,-0.045294340195482334,0.7278868863818653,0.2721131136181347
2009-02-01,-0.09103822677160735,23.306851711074412,75.81090685308052,-3.8267619086330686,-0.05047772236848755,0.7458716144030418,0.25412838559695816
2009-03-01,-0.10996366033591169,30.262340029878473,90.4233424666078,-5.752289292077908,-0.06361509246577736,0.7275545942073159,0.27244540579268406
2009-04-01,-0.10139597794613282,24.589510039520952,79.36520044468023,-4.4793059246667415,-0.05643916854703773,0.7425563665700907,0.2574436334299093
2009-05-01,-0.10057564575989669,22.088424513155033,73.81479303944906,-4.0611301052455735,-0.055017835016826125,0.7486235566449126,0.25137644335508735
2009-06-01,-0.09022284451916054,19.81378272028878,59.50432891127694,-3.0979506425112096,-0.05206260954779212,0.7320704223628414,0.26792957763715863
2009-07-01,-0.08937560475272342,16.306943123071235,45.040893849814374,-2.4221931520247386,-0.05377764393622755,0.7170492944958654,0.2829507055041346
2009-08-01,-0.09164406917426617,13.826740563234344,42.81513405763235,-2.229784671392618,-0.05207935746250759,0.7372152899663275,0.26278471003367254
2009-09-01,-0.08866426047942769,11.81177480697928,33.89532395673457,-1.7740917237396656,-0.05234030882856265,0.7241744251415216,0.27582557485847836
2009-10-01,-0.08249848596360136,12.983010018016707,27.54603281495194,-1.5601386813661877,-0.056637508996190085,0.666818437625628,0.333181562374372
2009-11-01,-0.09017897343295352,13.489466262068099,23.043144250156914,-1.5899136558477542,-0.0689972530913149,0.6202857154029238,0.37971428459707623
2009-12-01,-0.07040757539522072,19.15284106075493,22.840352589103837,-1.4726088060851088,-0.0644739962021264,0.5410285035094765,0.4589714964905235
2010-01-01,-0.07937119038389476,15.545048040775368,18.034693218864543,-1.3289642784200968,-0.07368931992865736,0.5343516179530525,0.4656483820469475
2010-02-01,-0.07882656655924741,13.404763353996074,18.857373382057673,-1.2532646394170814,-0.06646019114250196,0.5784127010470692,0.4215872989529308
2010-03-01,-0.08604246330590576,12.175626865103903,15.75249500741987,-1.1916073565348249,-0.07564562667523742,0.5590021514263414,0.44099784857365865
2010-04-01,-0.08282570841621502,10.598715460355,17.74188846953938,-1.1357734125839312,-0.06401648925557801,0.6166721846226882,0.38332781537731175
2010-05-01,-0.08420213036250196,10.291436065348577,14.173909372016004,-1.0169647402170634,-0.07174906467406154,0.5732562177401257,0.4267437822598743
2010-06-01,-0.11220719626226294,11.821140764544644,30.4067461647374,-2.1273325219194392,-0.06996251787001463,0.699920234703767,0.30007976529623304
2010-07-01,-0.10450273182228696,10.616681477866193,32.16554599455505,-1.9311566383657104,-0.06003804936787376,0.7309902099001834,0.2690097900998166
2010-08-01,-0.10515086371176496,11.24906395367922,32.00954633652338,-1.9953119188551949,-0.06233490152837667,0.7196912052229402,0.28030879477705983
2010-09-01,-0.0997183535193929,10.02189227219654,31.589195607179576,-1.774268113822502,-0.05616692922118116,0.7387896684422346,0.2612103315577654
2010-10-01,-0.07770424132245997,11.151161761461161,36.59433429041144,-1.5696821077996195,-0.042894129330039825,0.7500072948536212,0.24999270514637884
2010-11-01,-0.07621780355618483,13.302469355120959,29.665635391014636,-1.5140819776744092,-0.05103824535418535,0.6778749287479225,0.32212507125207746
2010-12-01,-0.08300645338913377,11.608830910190113,23.12783441836362,-1.3601085966728013,-0.058808298782737224,0.6537635106370489,0.34623648936295115
2011-01-01,-0.08199724840446003,10.138680815786257,24.54910938508445,-1.293623435986212,-0.052695330640882304,0.6932986483841348,0.3067013516158652
2011-02-01,-0.0868966517285955,9.876895002533901,19.535170030725563,-1.207040546388177,-0.06178807476411537,0.6517349130168572,0.34826508698314285
2011-03-01,-0.0865056905849619,8.748038154312379,16.560891904533893,-1.0412184930719635,-0.06287212663871733,0.6426152578910891,0.3573847421089109
2011-04-01,-0.08897949502094042,9.217227756863917,13.406211566961282,-0.9891066702100986,-0.07377973003556697,0.5851362277824812,0.4148637722175188
2011-05-01,-0.08240817750093898,10.04096627113989,11.729382121497169,-0.894325535447805,-0.07624660243685973,0.5358337766629436,0.46416622333705637
2011-06-01,-0.08808157729181867,9.232789476881223,10.686623087853178,-0.8749269531413678,-0.08187122779092332,0.5335459811922214,0.4664540188077786
2011-07-01,-0.08942500708327514,8.284901187584618,10.423484370155952,-0.8310154717428516,-0.07972530511219238,0.5524923774249435,0.4475076225750565
2011-08-01,-0.09482591689884305,8.341204101946168,10.6303641633149,-0.8929260557776811,-0.08399769208839947,0.5551407645991852,0.44485923540081485
2011-09-01,-0.14656171151961858,24.471406582471936,18.43991594022737,-3.1133608705394487,-0.16883812706258247,0.4386270787471019,0.5613729212528982
2011-10-01,-0.11657094366703712,19.474143461371714,29.349675250359986,-2.7868984550423326,-0.09495500141890496,0.5907717339822856,0.40922826601771445
2011-11-01,-0.1215353721225389,22.065813646385685,41.64462999296578,-3.6841912944761215,-0.08846737971014319,0.6377260809266415,0.3622739190733585
2011-12-01,-0.10570020050192935,19.83570527601866,32.10899414047259,-2.6675525580737336,-0.08307804805107083,0.6071345211859135,0.3928654788140865
2012-01-01,-0.09587488473485832,21.794443968218552,24.687514880440744,-2.2239060635890424,-0.0900822166329501,0.5284025517569552,0.47159744824304484
2012-02-01,-0.09113006354112736,17.51154945371949,21.746276234566587,-1.7783466074825354,-0.08177706326822895,0.5494543310228056,0.4505456689771944
2012-03-01,-0.08198467649379841,17.855169269590952,19.169967526955862,-1.5167896682677464,-0.07912322575063895,0.5164108886190575,0.4835891113809425
2012-04-01,-0.08932839544048986,17.461362564855023,16.232068927812612,-1.5038881496423118,-0.09264919686642628,0.4832526814374762,0.5167473185625238
2012-05-01,-0.08688039222956634,14.88786374584762,13.515347539740414,-1.2323996734108948,-0.09118520036478213,0.4777679841041305,0.5222320158958695
2012-06-01,-0.06739888949091172,14.883051930043893,22.44262628633153,-1.2317868919969779,-0.05488604035380592,0.5949951805605376,0.4050048194394624
2012-07-01,-0.07761902373049363,12.39056042203843,19.551261633930636,-1.208094882526703,-0.061791147044449046,0.6042071533299668,0.3957928466700332
2012-08-01,-0.08317984785745827,10.618118384457023,15.460620996442211,-1.0657500708687986,-0.06893319945648033,0.5858288106362834,0.41417118936371655
2012-09-01,-0.08419569721782974,9.71833461990192,12.676596220971296,-0.9345168803881132,-0.07371985855651947,0.5609599801523836,0.4390400198476164
2012-10-01,-0.07690379407873532,14.48358595693082,10.875387667303766,-0.9651797251742628,-0.08874899495086697,0.4338899510705214,0.5661100489294786
2012-11-01,-0.08177561463215935,12.105506208008293,10.747767515088386,-0.9327696917099282,-0.08678729702707544,0.47253632917023086,0.5274636708297691
2012-12-01,-0.0841483156766351,10.839921767732609,8.99309168544802,-0.8308316110813171,-0.09238553771510076,0.45703982641425106,0.542960173585749
2013-01-01,-0.08566810256357303,10.377302138146673,7.637275022775135,-0.7626593408594262,-0.09986013841129172,0.42988634285879473,0.5701136571412053
2013-02-01,-0.09080300636365782,9.267738101019408,10.22468317766065,-0.8839181137645092,-0.08644943793424656,0.522505491204934,0.47749450879506605
2013-03-01,-0.08973596510785402,9.647924788755398,8.557559067193784,-0.8153769785122085,-0.09528148997978099,0.47251581343594107,0.5274841865640589
2013-04-01,-0.09491328283060403,9.47989270002842,8.882600958807025,-0.8709611471538032,-0.09805249061540387,0.48514526006093656,0.5148547399390635
2013-05-01,-0.09564775297803545,16.069581112341382,7.749916281038417,-1.0673959614989563,-0.13772999898212257,0.3397246649698653,0.6602753350301347
2013-06-01,-0.09613234646607038,17.68602864183399,7.037424123624537,-1.072485841944353,-0.15239749986703696,0.3018379429302905,0.6981620570697096
2013-07-01,-0.08099495576110462,18.940134269869127,7.373476428942303,-0.9571624384011439,-0.12981155464796748,0.2951203726899652,0.7048796273100348
2013-08-01,-0.09737312917330708,18.765939700617434,9.870163011586333,-1.325215319253076,-0.13426478546478304,0.3578337748495033,0.6421662251504967
2013-09-01,-0.10315513529684386,18.33721867392667,11.745115649571375,-1.5138618118749363,-0.12889288254306658,0.4004516537715207,0.5995483462284793
2013-10-01,-0.09607158342314047,14.99580175087215,10.61069417326169,-1.2118578835876959,-0.11421098976177305,0.42177890723939726,0.5782210927606027
2013-11-01,-0.09812536502695358,13.63058962524634,11.506324431773068,-1.2288727510335766,-0.10679976549594068,0.46150948720848095,0.538490512791519
2013-12-01,-0.09721200134962842,13.311041406423863,10.29128058522801,-1.1377860664437132,-0.11055825920020863,0.44165365994112527,0.5583463400588747
2014-01-01,-0.09700820404431845,14.547401361568102,9.07238528013863,-1.114453410458493,-0.12284017665103657,0.3940949164539757,0.6059050835460242
2014-02-01,-0.09627044737793782,12.433882998671688,11.964164903355346,-1.1741878262589558,-0.09814206304776485,0.4912190485139363,0.5087809514860637
2014-03-01,-0.08177349278368767,12.827990751210551,12.294092496401454,-1.0269282599505332,-0.08353022073415509,0.49017700474433396,0.5098229952556661
2014-04-01,-0.08510830022074956,11.673649098031962,10.073381380329064,-0.9229174820695646,-0.09161943216721692,0.4660857702595934,0.5339142297404066
2014-05-01,-0.08574061885591863,11.583396120106784,8.440646778850367,-0.8477980848631063,-0.10044231290277711,0.4276518976370142,0.5723481023629857
2014-06-01,-0.08814111307466942,10.151061731457819,7.560924588048963,-0.7721856352057117,-0.10212846672565055,0.432745922189227,0.5672540778107731
2014-07-01,-0.08924818521470117,9.094459171195957,6.816192772784024,-0.7026818967008811,-0.10309008564232197,0.4342150517484914,0.5657849482515086
2014-08-01,-0.09341210765693574,8.704618070423377,7.2185239518386854,-0.7404610735215825,-0.10257790629523007,0.45730611815355027,0.5426938818464497
2014-09-01,-0.09515307050679436,8.20388694584578,8.08722680750784,-0.7750548748424733,-0.09583691582916223,0.4967306015106512,0.5032693984893488
2014-10-01,-0.07722524553183277,11.173900286423228,8.201260032869408,-0.7392681308079609,-0.09014079883397018,0.42872629938724494,0.5712737006127551
2014-11-01,-0.08472020216601256,10.00562724097418,7.5080271108873795,-0.7342975161268508,-0.09780166018074801,0.4342122190171824,0.5657877809828176
2014-12-01,-0.09253677428030994,11.55116722784143,7.0819517346233525,-0.8369582090547808,-0.11818185726442171,0.38995893764253453,0.6100410623574655
2015-01-01,-0.09212337889095971,10.352642410374678,6.561578466596165,-0.759275923352287,-0.11571543756088971,0.397165119957531,0.602834880042469
2015-02-01,-0.10387690412031873,11.006113331850054,9.258522126529433,-1.0485926816986713,-0.11325702605322145,0.4609246666617875,0.5390753333382126
2015-03-01,-0.1036189685119265,10.31736175621314,12.204917768994562,-1.1627625155260304,-0.09526999997328277,0.5379823498793961,0.4620176501206039
2015-04-01,-0.08579380027206877,11.902251382949137,11.44430352218335,-1.001302149706131,-0.08749349820766568,0.49096719822005613,0.5090328017799439
2015-05-01,-0.08691688359200447,10.42774878657838,9.442114846780118,-0.8624502762070051,-0.09134079495984013,0.47717886772647333,0.5228211322735267
2015-06-01,-0.08760604790703223,9.127499232444071,7.974446077678928,-0.7474123234024995,-0.0937259235465348,0.46899856379802163,0.5310014362019784
2015-07-01,-0.08169585601730457,8.643623324118892,8.762961720938138,-0.7110062222001119,-0.08113766153984678,0.5031690729191611,0.49683092708083887
2015-08-01,-0.0894675826897704,11.465708796787753,7.734382278126365,-0.8425175844199716,-0.10893146396483384,0.41067024266187313,0.5893297573381269
2015-09-01,-0.0773753509423487,10.127904075756724,18.15429665261385,-1.0491851509041177,-0.05779266313537166,0.6320974607238956,0.3679025392761044
2015-10-01,-0.08303097443947281,8.882566101087244,17.04737788533137,-1.0217347230610603,-0.05993500759669466,0.6459387822643448,0.35406121773565524
2015-11-01,-0.07139483816695433,8.942998678625662,24.535520282534907,-1.057562475305667,-0.04310332379861822,0.7190351968817713,0.2809648031182287
2015-12-01,-0.07504281421967815,14.957310340406638,19.232015318544907,-1.2727651136445786,-0.06617949770543735,0.5581832278228617,0.44181677217713833
2016-01-01,-0.07968092302226529,12.730071481043632,16.643784921785183,-1.1598339711852996,-0.06968571010955468,0.5617431087517151,0.43825689124828493
2016-02-01,-0.0889479721810754,11.179209286557,21.125332712505408,-1.3669208680380185,-0.06470529419064971,0.6419318239838483,0.3580681760161517
2016-03-01,-0.09188836794861628,20.00829006752983,16.918841413515707,-1.6906388135561299,-0.09992639402634,0.4616773680434232,0.5383226319565768
2016-04-01,-0.08050031429705382,17.766774593830785,20.122532578332013,-1.5221000205898862,-0.07564157317995285,0.5287754231786588,0.4712245768213412
2016-05-01,-0.08421749868986012,14.574751795723442,15.912849860833248,-1.2825576778123238,-0.08059886752084047,0.5202418770084266,0.4797581229915734
2016-06-01,-0.08576310118807992,12.325600506341702,12.840334420570727,-1.0789285562771296,-0.08402651527117885,0.5094191522444166,0.4905808477555834
2016-07-01,-0.08735324025423218,10.591261752580015,10.59056830935341,-0.9251507447164273,-0.08735610004038687,0.4999849461777982,0.5000150538222018
2016-08-01,-0.07770058730126053,11.780910566707455,10.340334107457478,-0.8575925838577284,-0.08293664159644805,0.46978204226039555,0.5302179577396045
2016-09-01,-0.08292648288927681,10.100468657718219,8.824001441175456,-0.7828828765626505,-0.08872197968027097,0.46885181737873977,0.5311481826212603
2016-10-01,-0.0842216420654003,9.158343864339509,7.7059521903390795,-0.7075307713279866,-0.09181613820742555,0.4602723545872255,0.5397276454127745
2016-11-01,-0.07032738665154104,11.884554852347367,8.364607879720351,-0.7011948738913082,-0.08382878001864576,0.41871375099077085,0.5812862490092292
2016-12-01,-0.08487548807999531,11.214159691429105,8.543247625978779,-0.8307630079646128,-0.0972420611382471,0.4376506751320517,0.5623493248679483
2017-01-01,-0.09087946394212375,17.202023076521446,7.504244124810637,-1.0325450203673754,-0.13759480677788194,0.31887771202589,0.68112228797411
2017-02-01,-0.0874500228763781,15.034098676135937,6.724955948221495,-0.879312703615152,-0.1307536748768887,0.32334263590724016,0.6766573640927598
2017-03-01,-0.07971373898078256,13.85262479749181,7.66925020471637,-0.8216288290156242,-0.10713287571584845,0.3665370347006782,0.6334629652993218
2017-04-01,-0.08352125647818363,11.686028305472268,6.820745286936165,-0.7456695383353334,-0.10932376257526007,0.37835644545450636,0.6216435545454937
2017-05-01,-0.08553716824758828,10.879165372298527,6.032131341953029,-0.6929279069129424,-0.11487281486954368,0.36754676655540797,0.632453233444592
2017-06-01,-0.0874225472488212,10.061750684948372,5.470902806742562,-0.648619098313878,-0.11855796405567533,0.3636102963932849,0.6363897036067151
2017-07-01,-0.08804735633515426,8.902860576992733,5.062038019834155,-0.5910766565380721,-0.11676653834327329,0.3732155082056768,0.6267844917943233
2017-08-01,-0.09099656688552338,8.742281936817218,4.985738696191107,-0.6007616042877302,-0.12049600688994924,0.3741909571890978,0.6258090428109022
2017-09-01,-0.09231258947640861,9.3914064389903,4.807752570317668,-0.6202936083132754,-0.12901945331855755,0.351563173332041,0.648436826667959
2017-10-01,-0.08712172284907634,8.899098140396585,4.796048675104238,-0.5691690081546182,-0.11867456873594967,0.3616963743916246,0.6383036256083754
2017-11-01,-0.09266499299026458,9.35876217558005,4.9357094493514015,-0.6297957068900919,-0.1275998340973764,0.3578168059618776,0.6421831940381224
2017-12-01,-0.09059081242918016,8.31791006121313,5.4464877191598084,-0.6097467987983363,-0.11195229480704634,0.4041830233007731,0.595816976699227
2018-01-01,-0.08948775787193775,8.009735184211957,5.0216833399943015,-0.5675411651349147,-0.11301811100171018,0.39453811230761543,0.6054618876923845
2018-02-01,-0.056762266970994374,10.577269202129841,9.318794631301481,-0.5635421197636662,-0.06047371382890545,0.47006931201595126,0.5299306879840487
2018-03-01,-0.07011646714200218,9.240163210700052,12.842192231738363,-0.7637996063250706,-0.059475796074552306,0.5762819978619056,0.4237180021380944
2018-04-01,-0.07651324825786872,8.334752976769149,13.197391294416068,-0.8024667615817956,-0.060804953318412736,0.6050832425958867,0.39491675740411325
2018-05-01,-0.08263322136342799,7.5712257565395715,10.803353290905857,-0.7473380093666357,-0.06917648523035312,0.5813348946299448,0.4186651053700552
2018-06-01,-0.088525542637112,8.129313547481784,9.33507901848787,-0.77117782681177,-0.08261074440660582,0.5317194045261019,0.4682805954738981
2018-07-01,-0.08734892778361664,8.054012779952009,7.912405347302262,-0.6972973254589124,-0.08812709850572256,0.49592168284019156,0.5040783171598084
2018-08-01,-0.0981026956524571,9.567650922298721,8.410436187100782,-0.8800206473655439,-0.10463436470931738,0.4706858038537289,0.5293141961462711
2018-09-01,-0.09922899422559918,10.121690976415064,8.196075503571066,-0.9037911858368063,-0.11027121278263242,0.45215945107244204,0.547840548927558
2018-10-01,-0.09319208170179977,8.943633146074188,7.080971567015523,-0.7416216962622341,-0.10473445476279629,0.44680495376066887,0.5531950462393311
2018-11-01,-0.09554462025736492,8.14592936438889,20.079543248147143,-1.2219501060702023,-0.0608554732032044,0.6945526234262691,0.3054473765737309
2018-12-01,-0.09171861221660728,7.415203737596033,16.00140208058367,-0.9990748764628489,-0.062436708447889115,0.6689215211801894,0.33107847881981056
2019-01-01,-0.10323744736674549,7.4517558308033305,36.3368257259245,-1.6987914195442193,-0.046751233372931,0.8060756290002907,0.19392437099970927
2019-02-01,-0.08467824117137542,8.072677693334455,37.57907538210352,-1.4748697921916913,-0.03924710167015116,0.8035544391125446,0.19644556088745535
2019-03-01,-0.0844286310702151,7.806502236069089,29.66791122897628,-1.284876769932305,-0.04330863605515247,0.7729662099130027,0.2270337900869973
2019-04-01,-0.08715519550285619,7.681856397997361,23.077805844448743,-1.1604425139601278,-0.05028391874781574,0.7327039713191673,0.2672960286808327
2019-05-01,-0.09049650958726511,7.436517212205467,19.98954418218222,-1.1033621157534166,-0.05519696225674339,0.7118097692274892,0.2881902307725108
2019-06-01,-0.08493298160991983,6.943031407889267,28.29280865070794,-1.1903891686335701,-0.042073912962465265,0.783781187055957,0.216218812944043
2019-07-01,-0.06591110403228254,10.595024209246606,29.188138964609422,-1.159078274533766,-0.039710591892794085,0.7208139183964717,0.2791860816035283
2019-08-01,-0.07609729800673229,10.97208850672251,22.580251684710884,-1.197783363764114,-0.05304561616446173,0.6614581233360399,0.3385418766639601
2019-09-01,-0.08926127029782326,14.05370817112579,19.1786356926353,-1.465437778864395,-0.07640990747986996,0.570858286450902,0.429141713549098
2019-10-01,-0.08853198881916373,11.782982733358002,15.310859090308812,-1.1891253044048402,-0.07766548548262135,0.5598511348495789,0.44014886515042106
2019-11-01,-0.0893407096331086,10.413351119627153,12.598699292785774,-1.0233106853300757,-0.08122351851956976,0.5436046290098026,0.45639537099019745
2019-12-01,-0.09225883875897918,9.694854117670987,11.653585063441923,-0.9806372778684534,-0.08414897840706362,0.5420153367794136,0.4579846632205864
2020-01-01,-0.08974035325843123,8.560924477133137,10.444203674828156,-0.8485662877944854,-0.08124758135841767,0.5454848681136737,0.4545151318863263
2020-02-01,-0.09225695770449567,11.286070460886904,8.917821392127601,-0.9255500161197497,-0.10378656124878201,0.44631036182011213,0.5536896381798879
2020-03-01,-0.10129109966894867,10.250610996793966,27.48070788918627,-1.7000438375317,-0.06186317486387138,0.709451831738612,0.29054816826138796
2020-04-01,-0.08658197811109532,9.048743047350248,64.6439587408414,-2.094043041105879,-0.032393483968098685,0.8569250980485951,0.14307490195140493
2020-05-01,-0.06573638891872625,11.95070863258955,75.2310436675375,-1.971066223343103,-0.026200171195998254,0.8472214513833102,0.15277854861668982
2020-06-01,-0.07542875303811832,10.552556577335169,59.280647775808625,-1.886567042102588,-0.03182433244045053,0.8310047220997757,0.16899527790022428
2020-07-01,-0.08174448355386481,9.230847986237103,44.943564669043326,-1.6649952985557126,-0.03704635604266042,0.8105215832434604,0.18947841675653965
2020-08-01,-0.07207824385101351,13.408024865491802,38.57007184988369,-1.6391240557460598,-0.04249730366398067,0.7276846854712439,0.2723153145287561
2020-09-01,-0.06573016596775545,16.515242067798077,37.0387498811799,-1.62568111511323,-0.043891360273454305,0.6806476529363421,0.3193523470636579
2020-10-01,-0.07207917597679564,14.75017541784622,33.35316658170957,-1.5987366903300877,-0.04793358035176226,0.6813128215018347,0.3186871784981653
2020-11-01,-0.07793012979504745,12.639091209314737,28.453725090438997,-1.4778586201995934,-0.051939020831271845,0.6795137387117356,0.3204862612882644
2020-12-01,-0.09143092479385385,11.451145106119053,40.918954477395,-1.9791551272375028,-0.04836768564873412,0.7615714650567167,0.2384285349432833
2021-01-01,-0.09057259285333202,9.957306950672788,32.886944987431946,-1.6390021155340626,-0.049837469432336225,0.7485745488322929,0.2514254511677071
2021-02-01,-0.0892900224233622,8.751708692861698,26.08215542344769,-1.3490284167408675,-0.0517222750512444,0.73087609549442,0.26912390450558
2021-03-01,-0.09167828897484234,9.773518828967129,20.893928363230707,-1.3100927008026733,-0.06270207679606025,0.6670351519130524,0.3329648480869476
2021-04-01,-0.09945966732321958,13.061437300852484,18.788136021963762,-1.5580605633388693,-0.08292789457759199,0.5818902471590145,0.4181097528409855
2021-05-01,-0.08842152958040886,11.614928926929135,18.79288983224711,-1.3063606363203728,-0.06951355794566312,0.608689332433716,0.39131066756628397
2021-06-01,-0.08833103225321068,13.02944802402186,14.88113572782079,-1.2299695319804584,-0.08265293418976002,0.5304849494200243,0.46951505057997567
2021-07-01,-0.08920385210845626,11.25381853408881,12.37747383940687,-1.0528089579509354,-0.08505846763327808,0.521829646462671,0.47817035353732895
2021-08-01,-0.09042711608734211,10.22772586317552,10.561617130195216,-0.9398389288769754,-0.08898627144795997,0.5073644836539805,0.49263551634601954
2021-09-01,-0.09181763596516633,9.360604783521394,9.672183550888153,-0.8736557229993317,-0.09032662773641302,0.5074970469501913,0.49250295304980873
2021-10-01,-0.08345006905697742,8.454214298898007,15.140680768248547,-0.9441391962131075,-0.0623577770817979,0.6311937557533434,0.36880624424665664
2021-11-01,-0.08647454216684809,7.657952817527974,19.535376777519282,-1.0576829667328118,-0.054141928194083325,0.7026262811396091,0.2973737188603909
2021-12-01,-0.08950212466443436,7.683003738110325,16.011406066320713,-0.9926898999131808,-0.0619989210067728,0.6621586947665186,0.33784130523348144
2022-01-01,-0.0940592887088208,7.750800091708027,15.349695097168945,-1.025946784529821,-0.06683825170696997,0.6510571238102216,0.3489428761897784
2022-02-01,-0.09488472682982185,7.268996932305423,20.685632163059584,-1.1635041943938615,-0.05624697303047127,0.7215308739128702,0.2784691260871298
2022-03-01,-0.0959472235234494,7.22649118957938,19.735379790807094,-1.145826586249132,-0.05805951536756681,0.7138013959592318,0.28619860404076825
2022-04-01,-0.08219720006683554,9.548917928498833,17.1050790909616,-1.0505014296922697,-0.061414590608198906,0.6313886488314998,0.3686113511685002
2022-05-01,-0.07655513163594595,8.591751640632733,35.30032466867533,-1.3332282724105096,-0.03776815893122889,0.7868279066237148,0.21317209337628518
2022-06-01,-0.07930811134509591,11.520300560284657,27.189408149571253,-1.4036194887536795,-0.05162376029048698,0.6887073648486914,0.31129263515130856
2022-07-01,-0.07765277932814814,10.07084733288713,40.87462785326167,-1.5754945910777376,-0.038544561108512156,0.7847115877172078,0.21528841228279216
2022-08-01,-0.10162098399497295,14.5109507915955,44.53196872492153,-2.583254997520529,-0.05800900053347194,0.7337742147975483,0.26622578520245166
2022-09-01,-0.0968722064293777,12.396131551121712,39.6019886827069,-2.1463511603937437,-0.05419806509189262,0.7416544642351668,0.2583455357648332
2022-10-01,-0.06878552414949482,14.62174108694906,54.55771563702161,-1.9427847447209647,-0.03560971573015487,0.7732906331507036,0.22670936684929643
2022-11-01,-0.08125752666947626,12.477018835622333,51.340871837928084,-2.0566038007206693,-0.04005782775198906,0.7860534717470713,0.2139465282529287
2022-12-01,-0.0796001066356326,12.062663059681324,43.04400449594848,-1.8138091236384415,-0.04213848467117334,0.7637415353974896,0.23625846460251043
2023-01-01,-0.09285478246353483,12.294662888581234,43.029673515305845,-2.135731312134904,-0.04963391858818578,0.7578622245856911,0.24213777541430892
2023-02-01,-0.07971148497640708,14.122050104756383,38.467670213887374,-1.8578802410410804,-0.048297186461018354,0.7161922761595272,0.2838077238404728
2023-03-01,-0.08020678154197747,12.903690618663736,31.98256034700669,-1.6293886045098271,-0.05094615899512638,0.6981395634365081,0.30186043656349193
2023-04-01,-0.08102240373107869,11.963249979510117,26.061101288940993,-1.4306259367470155,-0.054895068358224004,0.6724060577079721,0.3275939422920279
2023-05-01,-0.08294963018386624,12.597767959163672,20.30831422339999,-1.3267777925548825,-0.0653317541751506,0.6084171092322801,0.3915828907677199
2023-06-01,-0.08533398513687875,10.793515861585135,16.05526336630682,-1.1233425564474964,-0.06996724568249159,0.5904221263337187,0.4095778736662813
2023-07-01,-0.09624275803776557,10.613633368450564,19.204923174894997,-1.3740621857964994,-0.07154739299309965,0.6319030611207228,0.3680969388792772
2023-08-01,-0.09194538690603218,9.235680260268433,16.23977042755653,-1.1260413325250365,-0.06933850066096428,0.6263020781212378,0.37369792187876216
2023-09-01,-0.08570732266209172,8.856465825736713,14.457547640731836,-0.9698296789870644,-0.06708120236482734,0.6108963803786575,0.38910361962134254
2023-10-01,-0.08355350472660669,7.98574743367048,18.970893739191094,-1.0284101457229695,-0.05420989437089221,0.6893111981663166,0.3106888018336834
2023-11-01,-0.08484061576161733,7.320923624406139,17.003545469045857,-0.9465781895239828,-0.05566945971633876,0.684658634604342,0.31534136539565805
2023-12-01,-0.06667370217214103,8.170754108706259,26.325021904806043,-0.9778449829584007,-0.0371450776563221,0.7490197212691653,0.2509802787308347
2024-01-01,-0.07395485300880347,7.843652635413853,23.046567058953773,-0.9943264130222854,-0.043144231003201916,0.7311957992796361,0.26880420072036393
2024-02-01,-0.08126403660940959,7.192351262253719,18.120544837494577,-0.9277254308895482,-0.051197435795082825,0.7011199575505289,0.2988800424494711
2024-03-01,-0.08746564998710771,6.844092069526502,18.178132057613855,-0.9755961471842218,-0.05366866871096342,0.7100964855725415,0.28990351442745854
2024-04-01,-0.07545059663955496,11.750897272328853,15.471091081272318,-1.017322534707838,-0.0657563535347098,0.56357863796483,0.43642136203517
2024-05-01,-0.10303477180823979,17.86252109037026,17.972350916270766,-1.846110259182764,-0.10271946434739596,0.5013892980596919,0.4986107019403081
2024-06-01,-0.09430421261052169,14.6090794993207,17.457489097566835,-1.5060292585483572,-0.08626837743569105,0.540600357434037,0.459399642565963
2024-07-01,-0.09297293555599517,12.500915074535085,15.304063284020778,-1.2859699566913105,-0.08402800830247564,0.546139443514176,0.453860556485824
2024-08-01,-0.0897590336740172,11.62638656754478,12.30797320304329,-1.0737268634900055,-0.08723831664051024,0.5130663198623452,0.4869336801376548
2024-09-01,-0.08599396005970024,10.919727911091927,10.515517992452407,-0.9214869577560729,-0.0876311522092851,0.4913178515844107,0.5086821484155892
2024-10-01,-0.08322226381988057,11.312264438495406,9.049271884682296,-0.8420175007268942,-0.09304809397451935,0.44867466756725266,0.5513253324327474
2024-11-01,-0.09151114344301789,12.230469510309074,8.39397117723713,-0.9272125119018861,-0.11046172214842861,0.41466432554168364,0.5853356744583164
2024-12-01,-0.09619262806445059,10.943154571040022,12.02080598751384,-1.1032650256225018,-0.09177962166334577,0.5214070403549124,0.47859295964508763
